digraph Tree {
node [shape=box] ;
0 [label="Petal Width <= 0.8\ngini = 0.664\nsamples = 105\nvalue = [31, 37, 37]"] ;
1 [label="gini = 0.0\nsamples = 31\nvalue = [31, 0, 0]"] ;
0 -> 1 [labeldistance=2.5, labelangle=45, headlabel="True"] ;
2 [label="Petal Width <= 1.75\ngini = 0.5\nsamples = 74\nvalue = [0, 37, 37]"] ;
0 -> 2 [labeldistance=2.5, labelangle=-45, headlabel="False"] ;
3 [label="Petal Length <= 4.95\ngini = 0.214\nsamples = 41\nvalue = [0, 36, 5]"] ;
2 -> 3 ;
5 [label="gini = 0.056\nsamples = 35\nvalue = [0, 34, 1]"] ;
3 -> 5 ;
6 [label="gini = 0.444\nsamples = 6\nvalue = [0, 2, 4]"] ;
3 -> 6 ;
4 [label="gini = 0.059\nsamples = 33\nvalue = [0, 1, 32]"] ;
2 -> 4 ;
}